1.764052345967664026e+00
4.001572083672232938e-01
9.787379841057392005e-01
2.240893199201457797e+00
1.867557990149967484e+00
-9.772778798764110153e-01
9.500884175255893682e-01
-1.513572082976978872e-01
-1.032188517935578448e-01
4.105985019383723289e-01
1.440435711608779867e-01
1.454273506962975082e+00
7.610377251469934157e-01
1.216750164928284139e-01
4.438632327454256621e-01
3.336743273742668325e-01
1.494079073157606130e+00
-2.051582637658008745e-01
3.130677016509013644e-01
-8.540957393017247767e-01
-2.552989815834078691e+00
6.536185954403606058e-01
8.644361988595057333e-01
-7.421650204064419443e-01
2.269754623987607633e+00
-1.454365674598764757e+00
4.575851730144606805e-02
-1.871838500258335980e-01
1.532779214358457542e+00
1.469358769900285022e+00
1.549474256969163022e-01
3.781625196021735635e-01
-8.877857476301127537e-01
-1.980796468223926965e+00
-3.479121493261526088e-01
1.563489691039800511e-01
1.230290680727720742e+00
1.202379848784411287e+00
-3.873268174079522730e-01
-3.023027505753355659e-01
-1.048552965067092613e+00
-1.420017937178975176e+00
-1.706270190625012617e+00
1.950775395231789666e+00
-5.096521817516534991e-01
